{
  "alpha": 0.01,
  "backbone": "facebook/dinov2-small",
  "backbone_frozen": true,
  "candidate_ids": [
    "turn_left",
    "turn_right",
    "forward_small",
    "stop_capture"
  ],
  "feature_names": [
    "bias",
    "candidate:turn_left",
    "candidate:turn_right",
    "candidate:forward_small",
    "candidate:stop_capture",
    "obs:target_confidence",
    "obs:target_bearing_norm",
    "obs:target_abs_bearing_norm",
    "obs:target_area_ratio",
    "obs:target_area_sqrt",
    "obs:unsafe_color_risk",
    "obs:blocked_ahead",
    "obs:localized",
    "obs:stuck_probability",
    "interaction:turn_left:target_bearing_norm",
    "interaction:turn_left:target_abs_bearing_norm",
    "interaction:turn_left:target_area_sqrt",
    "interaction:turn_left:unsafe_color_risk",
    "interaction:turn_left:blocked_ahead",
    "interaction:turn_right:target_bearing_norm",
    "interaction:turn_right:target_abs_bearing_norm",
    "interaction:turn_right:target_area_sqrt",
    "interaction:turn_right:unsafe_color_risk",
    "interaction:turn_right:blocked_ahead",
    "interaction:forward_small:target_bearing_norm",
    "interaction:forward_small:target_abs_bearing_norm",
    "interaction:forward_small:target_area_sqrt",
    "interaction:forward_small:unsafe_color_risk",
    "interaction:forward_small:blocked_ahead",
    "interaction:stop_capture:target_bearing_norm",
    "interaction:stop_capture:target_abs_bearing_norm",
    "interaction:stop_capture:target_area_sqrt",
    "interaction:stop_capture:unsafe_color_risk",
    "interaction:stop_capture:blocked_ahead",
    "dinov2:0",
    "dinov2:1",
    "dinov2:2",
    "dinov2:3",
    "dinov2:4",
    "dinov2:5",
    "dinov2:6",
    "dinov2:7",
    "dinov2:8",
    "dinov2:9",
    "dinov2:10",
    "dinov2:11",
    "dinov2:12",
    "dinov2:13",
    "dinov2:14",
    "dinov2:15",
    "dinov2:16",
    "dinov2:17",
    "dinov2:18",
    "dinov2:19",
    "dinov2:20",
    "dinov2:21",
    "dinov2:22",
    "dinov2:23",
    "dinov2:24",
    "dinov2:25",
    "dinov2:26",
    "dinov2:27",
    "dinov2:28",
    "dinov2:29",
    "dinov2:30",
    "dinov2:31",
    "dinov2:32",
    "dinov2:33",
    "dinov2:34",
    "dinov2:35",
    "dinov2:36",
    "dinov2:37",
    "dinov2:38",
    "dinov2:39",
    "dinov2:40",
    "dinov2:41",
    "dinov2:42",
    "dinov2:43",
    "dinov2:44",
    "dinov2:45",
    "dinov2:46",
    "dinov2:47",
    "dinov2:48",
    "dinov2:49",
    "dinov2:50",
    "dinov2:51",
    "dinov2:52",
    "dinov2:53",
    "dinov2:54",
    "dinov2:55",
    "dinov2:56",
    "dinov2:57",
    "dinov2:58",
    "dinov2:59",
    "dinov2:60",
    "dinov2:61",
    "dinov2:62",
    "dinov2:63",
    "dinov2:64",
    "dinov2:65",
    "dinov2:66",
    "dinov2:67",
    "dinov2:68",
    "dinov2:69",
    "dinov2:70",
    "dinov2:71",
    "dinov2:72",
    "dinov2:73",
    "dinov2:74",
    "dinov2:75",
    "dinov2:76",
    "dinov2:77",
    "dinov2:78",
    "dinov2:79",
    "dinov2:80",
    "dinov2:81",
    "dinov2:82",
    "dinov2:83",
    "dinov2:84",
    "dinov2:85",
    "dinov2:86",
    "dinov2:87",
    "dinov2:88",
    "dinov2:89",
    "dinov2:90",
    "dinov2:91",
    "dinov2:92",
    "dinov2:93",
    "dinov2:94",
    "dinov2:95",
    "dinov2:96",
    "dinov2:97",
    "dinov2:98",
    "dinov2:99",
    "dinov2:100",
    "dinov2:101",
    "dinov2:102",
    "dinov2:103",
    "dinov2:104",
    "dinov2:105",
    "dinov2:106",
    "dinov2:107",
    "dinov2:108",
    "dinov2:109",
    "dinov2:110",
    "dinov2:111",
    "dinov2:112",
    "dinov2:113",
    "dinov2:114",
    "dinov2:115",
    "dinov2:116",
    "dinov2:117",
    "dinov2:118",
    "dinov2:119",
    "dinov2:120",
    "dinov2:121",
    "dinov2:122",
    "dinov2:123",
    "dinov2:124",
    "dinov2:125",
    "dinov2:126",
    "dinov2:127",
    "dinov2:128",
    "dinov2:129",
    "dinov2:130",
    "dinov2:131",
    "dinov2:132",
    "dinov2:133",
    "dinov2:134",
    "dinov2:135",
    "dinov2:136",
    "dinov2:137",
    "dinov2:138",
    "dinov2:139",
    "dinov2:140",
    "dinov2:141",
    "dinov2:142",
    "dinov2:143",
    "dinov2:144",
    "dinov2:145",
    "dinov2:146",
    "dinov2:147",
    "dinov2:148",
    "dinov2:149",
    "dinov2:150",
    "dinov2:151",
    "dinov2:152",
    "dinov2:153",
    "dinov2:154",
    "dinov2:155",
    "dinov2:156",
    "dinov2:157",
    "dinov2:158",
    "dinov2:159",
    "dinov2:160",
    "dinov2:161",
    "dinov2:162",
    "dinov2:163",
    "dinov2:164",
    "dinov2:165",
    "dinov2:166",
    "dinov2:167",
    "dinov2:168",
    "dinov2:169",
    "dinov2:170",
    "dinov2:171",
    "dinov2:172",
    "dinov2:173",
    "dinov2:174",
    "dinov2:175",
    "dinov2:176",
    "dinov2:177",
    "dinov2:178",
    "dinov2:179",
    "dinov2:180",
    "dinov2:181",
    "dinov2:182",
    "dinov2:183",
    "dinov2:184",
    "dinov2:185",
    "dinov2:186",
    "dinov2:187",
    "dinov2:188",
    "dinov2:189",
    "dinov2:190",
    "dinov2:191",
    "dinov2:192",
    "dinov2:193",
    "dinov2:194",
    "dinov2:195",
    "dinov2:196",
    "dinov2:197",
    "dinov2:198",
    "dinov2:199",
    "dinov2:200",
    "dinov2:201",
    "dinov2:202",
    "dinov2:203",
    "dinov2:204",
    "dinov2:205",
    "dinov2:206",
    "dinov2:207",
    "dinov2:208",
    "dinov2:209",
    "dinov2:210",
    "dinov2:211",
    "dinov2:212",
    "dinov2:213",
    "dinov2:214",
    "dinov2:215",
    "dinov2:216",
    "dinov2:217",
    "dinov2:218",
    "dinov2:219",
    "dinov2:220",
    "dinov2:221",
    "dinov2:222",
    "dinov2:223",
    "dinov2:224",
    "dinov2:225",
    "dinov2:226",
    "dinov2:227",
    "dinov2:228",
    "dinov2:229",
    "dinov2:230",
    "dinov2:231",
    "dinov2:232",
    "dinov2:233",
    "dinov2:234",
    "dinov2:235",
    "dinov2:236",
    "dinov2:237",
    "dinov2:238",
    "dinov2:239",
    "dinov2:240",
    "dinov2:241",
    "dinov2:242",
    "dinov2:243",
    "dinov2:244",
    "dinov2:245",
    "dinov2:246",
    "dinov2:247",
    "dinov2:248",
    "dinov2:249",
    "dinov2:250",
    "dinov2:251",
    "dinov2:252",
    "dinov2:253",
    "dinov2:254",
    "dinov2:255",
    "dinov2:256",
    "dinov2:257",
    "dinov2:258",
    "dinov2:259",
    "dinov2:260",
    "dinov2:261",
    "dinov2:262",
    "dinov2:263",
    "dinov2:264",
    "dinov2:265",
    "dinov2:266",
    "dinov2:267",
    "dinov2:268",
    "dinov2:269",
    "dinov2:270",
    "dinov2:271",
    "dinov2:272",
    "dinov2:273",
    "dinov2:274",
    "dinov2:275",
    "dinov2:276",
    "dinov2:277",
    "dinov2:278",
    "dinov2:279",
    "dinov2:280",
    "dinov2:281",
    "dinov2:282",
    "dinov2:283",
    "dinov2:284",
    "dinov2:285",
    "dinov2:286",
    "dinov2:287",
    "dinov2:288",
    "dinov2:289",
    "dinov2:290",
    "dinov2:291",
    "dinov2:292",
    "dinov2:293",
    "dinov2:294",
    "dinov2:295",
    "dinov2:296",
    "dinov2:297",
    "dinov2:298",
    "dinov2:299",
    "dinov2:300",
    "dinov2:301",
    "dinov2:302",
    "dinov2:303",
    "dinov2:304",
    "dinov2:305",
    "dinov2:306",
    "dinov2:307",
    "dinov2:308",
    "dinov2:309",
    "dinov2:310",
    "dinov2:311",
    "dinov2:312",
    "dinov2:313",
    "dinov2:314",
    "dinov2:315",
    "dinov2:316",
    "dinov2:317",
    "dinov2:318",
    "dinov2:319",
    "dinov2:320",
    "dinov2:321",
    "dinov2:322",
    "dinov2:323",
    "dinov2:324",
    "dinov2:325",
    "dinov2:326",
    "dinov2:327",
    "dinov2:328",
    "dinov2:329",
    "dinov2:330",
    "dinov2:331",
    "dinov2:332",
    "dinov2:333",
    "dinov2:334",
    "dinov2:335",
    "dinov2:336",
    "dinov2:337",
    "dinov2:338",
    "dinov2:339",
    "dinov2:340",
    "dinov2:341",
    "dinov2:342",
    "dinov2:343",
    "dinov2:344",
    "dinov2:345",
    "dinov2:346",
    "dinov2:347",
    "dinov2:348",
    "dinov2:349",
    "dinov2:350",
    "dinov2:351",
    "dinov2:352",
    "dinov2:353",
    "dinov2:354",
    "dinov2:355",
    "dinov2:356",
    "dinov2:357",
    "dinov2:358",
    "dinov2:359",
    "dinov2:360",
    "dinov2:361",
    "dinov2:362",
    "dinov2:363",
    "dinov2:364",
    "dinov2:365",
    "dinov2:366",
    "dinov2:367",
    "dinov2:368",
    "dinov2:369",
    "dinov2:370",
    "dinov2:371",
    "dinov2:372",
    "dinov2:373",
    "dinov2:374",
    "dinov2:375",
    "dinov2:376",
    "dinov2:377",
    "dinov2:378",
    "dinov2:379",
    "dinov2:380",
    "dinov2:381",
    "dinov2:382",
    "dinov2:383"
  ],
  "model_type": "dinov2_frozen_embedding_hybrid_action_scorer",
  "schema_version": 1,
  "training_summary": {
    "alpha": 0.01,
    "backbone": "facebook/dinov2-small",
    "backbone_frozen": true,
    "baselines": {
      "real_seed": {
        "always_forward_small_accuracy": 0.25,
        "always_turn_left_accuracy": 0.375,
        "random_expected_accuracy": 0.25
      },
      "test": {
        "always_forward_small_accuracy": 0.3125,
        "always_turn_left_accuracy": 0.333333,
        "random_expected_accuracy": 0.25
      },
      "train": {
        "always_forward_small_accuracy": 0.3125,
        "always_turn_left_accuracy": 0.327381,
        "random_expected_accuracy": 0.25
      },
      "validation": {
        "always_forward_small_accuracy": 0.3125,
        "always_turn_left_accuracy": 0.34375,
        "random_expected_accuracy": 0.25
      }
    },
    "candidate_ids": [
      "turn_left",
      "turn_right",
      "forward_small",
      "stop_capture"
    ],
    "claim_boundary": "Frozen DINOv2 visual embeddings plus geometry/action features and a small ridge score head. This is not a fine-tuned foundation world model or validated autonomy policy.",
    "embedding_dim": 384,
    "feature_count": 418,
    "model_type": "dinov2_frozen_embedding_hybrid_action_scorer",
    "schema_version": 1,
    "score_metrics": {
      "real_seed": {
        "count": 32,
        "mae": 0.035008,
        "r2": 0.890639,
        "rmse": 0.060097
      },
      "test": {
        "count": 192,
        "mae": 0.023418,
        "r2": 0.944317,
        "rmse": 0.044816
      },
      "train": {
        "count": 1344,
        "mae": 0.021043,
        "r2": 0.951137,
        "rmse": 0.040237
      },
      "validation": {
        "count": 384,
        "mae": 0.022067,
        "r2": 0.939418,
        "rmse": 0.04443
      }
    },
    "selection_metrics": {
      "real_seed": {
        "accuracy": 1.0,
        "groups": 8,
        "predicted_counts": {
          "forward_small": 2,
          "turn_left": 3,
          "turn_right": 3
        },
        "selected_counts": {
          "forward_small": 2,
          "turn_left": 3,
          "turn_right": 3
        }
      },
      "test": {
        "accuracy": 0.979167,
        "groups": 48,
        "predicted_counts": {
          "forward_small": 16,
          "turn_left": 15,
          "turn_right": 17
        },
        "selected_counts": {
          "forward_small": 15,
          "turn_left": 16,
          "turn_right": 17
        }
      },
      "train": {
        "accuracy": 0.985119,
        "groups": 336,
        "predicted_counts": {
          "forward_small": 110,
          "turn_left": 105,
          "turn_right": 121
        },
        "selected_counts": {
          "forward_small": 105,
          "turn_left": 110,
          "turn_right": 121
        }
      },
      "validation": {
        "accuracy": 0.979167,
        "groups": 96,
        "predicted_counts": {
          "forward_small": 32,
          "turn_left": 31,
          "turn_right": 33
        },
        "selected_counts": {
          "forward_small": 30,
          "turn_left": 33,
          "turn_right": 33
        }
      }
    },
    "splits": {
      "real_seed_candidate_rows": 32,
      "test_candidate_rows": 192,
      "train_candidate_rows": 1344,
      "validation_candidate_rows": 384
    }
  },
  "weights": [
    0.561855483483,
    -0.021636117776,
    -0.023326549017,
    0.187614275164,
    -0.142651609063,
    -0.020863176806,
    -0.000570335316,
    0.037411027136,
    -0.000445915928,
    0.601482983745,
    -0.036210870947,
    0.002360708933,
    0.0,
    5.5e-11,
    -0.170075822567,
    0.370198998824,
    -1.117147280353,
    0.022796570315,
    0.004613342308,
    0.149452296787,
    0.35408297031,
    -0.852696633176,
    0.010922651058,
    0.012040436727,
    0.02329437178,
    -0.662416774563,
    2.68699298207,
    -0.103182007521,
    -0.013351199451,
    -0.00324118131,
    -0.024454167463,
    -0.115666084796,
    0.03325191521,
    -0.000941870559,
    0.022231283447,
    0.00801240722,
    0.010229098465,
    0.082773035124,
    0.030432241453,
    -0.017490438897,
    0.009228929072,
    0.01710406114,
    0.029434175833,
    -0.056675211897,
    -0.047825728537,
    5.0737199e-05,
    -0.021677795359,
    -0.008544967449,
    -0.016363109599,
    0.061342029794,
    -0.026278076522,
    -0.003409062854,
    -0.007174474805,
    -0.088900730472,
    -0.02746229263,
    0.010524439204,
    -0.046174645548,
    0.036492166949,
    -0.01342789049,
    0.063258647892,
    0.014693520756,
    -0.026140651628,
    -0.034858634299,
    0.071785484766,
    0.090970730282,
    0.120609224559,
    -0.026434303864,
    -0.053524801037,
    0.022315740646,
    -0.03205984089,
    0.038964261494,
    0.047334186455,
    -0.025469056477,
    0.034515661682,
    0.020779932973,
    -0.013400135058,
    -0.021089253586,
    0.045737426879,
    -0.007618079296,
    -0.023969585245,
    -0.03150815088,
    0.025794286618,
    -0.087263207801,
    0.001878926681,
    -0.06946781516,
    -0.005126102888,
    0.046570315494,
    0.03675047273,
    -0.07435092054,
    0.023218475805,
    0.036581957383,
    0.023373912014,
    -0.026757931644,
    0.038602859038,
    -0.029269713378,
    0.053670865025,
    0.046162196313,
    0.013965010241,
    0.072851186775,
    -0.04818492846,
    -0.044649897423,
    -0.101682933487,
    -0.06308520939,
    0.013315596766,
    0.003942296452,
    -0.03398485356,
    0.024545322217,
    -0.100435465341,
    0.014708901667,
    -0.022425487767,
    -0.051493003429,
    0.023720431578,
    0.031520464631,
    -0.011637879991,
    0.042458644017,
    -0.093133943538,
    0.067085781045,
    0.014654376916,
    -0.016450088414,
    0.00386363165,
    -0.010417909644,
    -0.052061129789,
    0.034288601658,
    -0.052946611259,
    -0.002759283492,
    -0.06071412891,
    -0.090333810742,
    0.062677445121,
    0.005220200652,
    -0.006516232218,
    -0.023967891891,
    -0.010618297026,
    -0.073881116239,
    0.078508331771,
    -0.028725171111,
    0.051689246154,
    -0.0167304448,
    0.070735732117,
    -0.022783115892,
    0.004440254613,
    -0.037036416886,
    -0.035289619958,
    0.050940444452,
    -0.03626941804,
    0.023447137817,
    0.055058641148,
    0.069906335232,
    -0.048472322146,
    -0.052169600592,
    0.018297452685,
    0.020434809044,
    0.033442772615,
    -0.041092113651,
    -0.048529441866,
    -0.047160555463,
    0.004658176003,
    -0.019791945944,
    0.008599621868,
    -0.03643406751,
    0.003315969314,
    0.020908981886,
    -0.038479848614,
    -0.009664402201,
    -0.009747028864,
    0.077652395398,
    0.013967137087,
    -0.029469658202,
    -0.088171499806,
    0.028349205124,
    0.094139207214,
    -0.061970822392,
    -0.006796712071,
    -0.019151133035,
    -0.086661594307,
    0.007784944428,
    -0.00414681173,
    -0.004966683268,
    -0.058599944591,
    -0.018842768483,
    0.028691876377,
    0.02607714119,
    -0.016262381576,
    -0.030877310691,
    0.015411691751,
    0.017332773081,
    0.0303534,
    -0.01024298075,
    -0.000652151281,
    0.039976960865,
    -0.029370183816,
    0.012838871872,
    3.292652e-05,
    0.045544683147,
    0.039501107165,
    0.021573986806,
    -0.018667581214,
    0.055930236527,
    0.057712395286,
    0.0343075154,
    -0.01776774383,
    -0.059326079179,
    0.029556567136,
    0.021801837153,
    0.035597976736,
    -0.071530901443,
    0.04486474916,
    -0.016765821002,
    0.007803623777,
    0.002704067704,
    0.085585445718,
    -0.046030613958,
    -0.056755963269,
    0.032823238704,
    -0.024376247508,
    -0.06536033999,
    -0.056896606083,
    0.026144804024,
    0.081590185234,
    0.000841854461,
    -0.051586933415,
    0.050527741185,
    -0.017451113882,
    0.026937433945,
    0.041257174648,
    -0.096937431643,
    0.007295364435,
    -0.025169572655,
    0.007741627653,
    -0.006136561008,
    -0.02925940171,
    0.014167756354,
    0.07198180633,
    -0.002418453049,
    0.020214229457,
    0.03810565925,
    -0.006878674693,
    0.025029308656,
    0.023781973966,
    0.005444017654,
    0.017935621997,
    0.086436110495,
    0.070455271432,
    0.051531393362,
    -0.033835799983,
    0.045705994877,
    -0.0177130505,
    0.007869981034,
    -0.008560688993,
    -0.028254012235,
    -0.05399364353,
    0.035202786355,
    -0.036578854942,
    -0.014742632723,
    0.049700369963,
    -0.002309243289,
    0.031205602782,
    -0.009316013493,
    0.019128513559,
    -0.022534112112,
    0.024500998535,
    0.01281533506,
    -0.060352352084,
    -0.033017080736,
    -0.048982522978,
    0.119466989127,
    0.056004578885,
    0.001402701318,
    0.019863349237,
    0.022222946049,
    -0.019828580244,
    0.044015872643,
    0.03419119009,
    -0.041914074625,
    -0.016464030735,
    0.021626080665,
    0.037346123178,
    0.024111409685,
    0.015969102747,
    0.100713747864,
    0.039840926224,
    -0.003990961394,
    -0.020799856335,
    -0.066849301397,
    -0.000654818171,
    -0.001000972808,
    -0.00970140179,
    0.026763344303,
    0.038524380776,
    -0.040715651177,
    0.090699219102,
    0.00764033645,
    -0.110503209689,
    0.051790562308,
    -0.040110310359,
    -0.06970012084,
    -0.052912290874,
    -0.043816429956,
    0.007648419713,
    -0.037035558329,
    0.05850358209,
    -0.014241743028,
    -0.01818095519,
    -0.003012881721,
    0.024273462662,
    0.023877533713,
    0.018739802471,
    0.08060741788,
    -0.005862076701,
    0.013527606898,
    -0.044629009629,
    -0.012832781614,
    0.011634448748,
    -0.048592451921,
    0.01372739584,
    0.035736722739,
    -0.027335491392,
    -0.017285610773,
    0.017468317929,
    -0.053977181907,
    0.02514155878,
    0.012054137943,
    0.080372537493,
    -0.012151294278,
    0.023976983041,
    0.045107590504,
    -0.070128007239,
    0.06982609885,
    0.017612661527,
    0.079380617053,
    0.042949343182,
    0.003208233342,
    0.01423129168,
    -0.01641559571,
    0.058089205853,
    0.074021969454,
    0.000319810762,
    -0.005759733049,
    -0.001630634612,
    -0.078195891806,
    -0.073638690535,
    0.024982226852,
    -0.004593959109,
    0.01142221302,
    -0.010685789822,
    0.026606614546,
    0.054382880377,
    -0.046359592619,
    -0.021454374808,
    0.00624591348,
    0.025622519184,
    0.092560463288,
    0.034392362928,
    -0.036107471115,
    -0.005135453048,
    -0.056854169476,
    -0.046396928859,
    0.001133968254,
    -0.009754730232,
    -0.024612340963,
    -0.036281316118,
    0.018670918207,
    -0.006822269359,
    0.070672764321,
    -0.055731640057,
    -0.064839335222,
    -0.049692480905,
    0.031298608553,
    0.018478903361,
    0.022751095671,
    -0.051484239888,
    -0.014627611487,
    0.070162317178,
    0.029108053244,
    0.065154112348,
    -0.025278172904,
    -0.096667688631,
    -0.073071824369,
    0.054946070641,
    0.033459156161,
    0.056103784122,
    -0.028120547027,
    0.058821170023,
    -0.04396183413,
    0.009300524289,
    0.001227597539,
    0.011263230794,
    0.037070021286,
    -0.043005305777,
    -0.009031798168,
    -0.02522038731,
    -0.089072564244,
    0.02187321521,
    -0.052667539337,
    0.075890209272,
    0.002113591389,
    -0.00660580581,
    0.013492790659,
    -0.018809277101,
    -0.025076467948,
    -0.05553366144,
    -0.044999095316,
    -0.085113242585,
    -0.007337317525,
    -0.043157029025,
    0.00964937134,
    -0.067941555627,
    0.003212756078,
    -0.081416919827,
    -0.054024704488,
    0.020306424685,
    -0.001375183371,
    0.003939152245,
    0.058445369237,
    -0.007560565181,
    0.05544170977,
    0.027200225598,
    0.047340742649,
    0.03948042161
  ]
}
